{"layers":[{"l":{},"d":{},"c":{},"a":{},"p":{},"t":{},"f":{},"pkg":{}},{"0":{"bias":-0.13796245740958926,"weights":{"l":0.05113398451186486,"d":-0.048331867711868405,"c":-0.0805119904238717,"a":-0.05498312045172018,"p":-0.12177502769353304,"t":0.19817343491113787,"f":-0.06937883004844836,"pkg":-0.1751099235941011}},"1":{"bias":0.10655116936339876,"weights":{"l":-0.033160519363550044,"d":-0.05889516491357935,"c":-0.17400457505070274,"a":-0.08699655107447968,"p":-0.03334255257795991,"t":0.10471158897610626,"f":-0.09624864011554493,"pkg":-0.12056846785355514}},"2":{"bias":-0.02517161090179649,"weights":{"l":-1.0155185352445646,"d":-0.04908354830078033,"c":0.1599672741182357,"a":-0.03974438647905545,"p":0.17975999547504587,"t":-0.18862149985420903,"f":-0.09899460815487574,"pkg":0.04164764205613941}},"3":{"bias":-0.010855809046868281,"weights":{"l":-0.16161173546452634,"d":-0.13332664601464222,"c":0.19121184119602147,"a":-0.17211376614859974,"p":0.06504723833716419,"t":0.10348630870017228,"f":0.1769374909014026,"pkg":0.13409378091818897}}},{"i6742":{"bias":-2.69442465387139,"weights":{"0":-3.180133222625043,"1":0.04531205845065971,"2":-1.6811207566331048,"3":-0.10722229190959053}},"i8146":{"bias":-2.8503669999490637,"weights":{"0":-3.020766452668123,"1":-0.056415507758215605,"2":1.7104888619350496,"3":0.058353817228989524}},"i8396":{"bias":-2.806513772564651,"weights":{"0":-3.010573393869043,"1":-0.17623633925116325,"2":-1.9090367934490233,"3":-0.0019202740265006624}},"i6904":{"bias":-2.7234994698944583,"weights":{"0":-3.02825426788945,"1":0.05284905177072325,"2":-1.8291733794871525,"3":0.06456224254009546}},"i8555":{"bias":-2.7353745639518245,"weights":{"0":-2.9475608833998392,"1":-0.17015954214512635,"2":-1.8804419409872903,"3":0.15911307720480805}},"i8766":{"bias":-2.5982374988408403,"weights":{"0":-3.0052492669688617,"1":-0.09038150611613688,"2":-1.8280937177364065,"3":0.07195449481504756}},"i8823":{"bias":-2.5003296049102577,"weights":{"0":-2.9554995975517104,"1":0.032213604697139825,"2":-1.7489313852785004,"3":-0.06514934589871357}},"i7299":{"bias":-2.5301598728235644,"weights":{"0":-2.73364892942187,"1":0.011670210036882948,"2":-1.9035121008801987,"3":0.13906379393474982}},"i7477":{"bias":-2.351701553311406,"weights":{"0":-2.7000244260459323,"1":0.1912623546344323,"2":-1.728593777681703,"3":0.026367697194388112}},"i6809":{"bias":-2.1811605120736473,"weights":{"0":-2.5108648664150404,"1":0.04109833295187106,"2":-1.8898473347642961,"3":0.02303246884709448}},"i7711":{"bias":2.300990762892708,"weights":{"0":2.3714554931869913,"1":-0.187523203309366,"2":-1.828552069084565,"3":0.09834353607769597}}}],"outputLookup":true,"inputLookup":true}