{"layers":[{"l":{},"d":{},"c":{},"a":{},"p":{},"t":{},"f":{},"pkg":{}},{"0":{"bias":0.17471034700276286,"weights":{"l":-0.7230250728074711,"d":-0.18673150065363586,"c":0.05992162461465068,"a":0.07200335278721527,"p":-0.004803854067096532,"t":0.04993886315141905,"f":-0.022093358226988748,"pkg":0.028938714997493065}},"1":{"bias":-0.018233310575489547,"weights":{"l":-0.12163291317687773,"d":0.06177505958656565,"c":-0.15389062564340375,"a":-0.13852393261987483,"p":0.05519278833057617,"t":0.1655613231968972,"f":0.1571389004884794,"pkg":0.10039610723338177}},"2":{"bias":0.09785984728331415,"weights":{"l":0.06179026200214421,"d":0.006934193228858879,"c":-0.013152058061729296,"a":-0.17079357599683004,"p":-0.078779056639944,"t":0.18737381771655798,"f":0.016035230058251585,"pkg":0.0441344765455965}},"3":{"bias":-0.023575517398834178,"weights":{"l":-0.6678764747789137,"d":-0.03444922975501766,"c":0.04452449188808218,"a":-0.178921740697357,"p":-0.052890904149302996,"t":0.03040642769212356,"f":0.13485050525547626,"pkg":0.06207725364430845}}},{"i6742":{"bias":-2.6936349592447173,"weights":{"0":-1.2994051551599435,"1":0.13965819800861462,"2":-3.1268570639977122,"3":-1.8135050850518457}},"i8146":{"bias":-2.83025715019881,"weights":{"0":1.1395034969421267,"1":-0.05601635407612013,"2":-2.9903052368288834,"3":-1.7457438149566638}},"i8396":{"bias":-2.8821293928863163,"weights":{"0":-1.4616238344374513,"1":0.1933123766608853,"2":-2.9351864948566537,"3":0.53039289060952}},"i6904":{"bias":-2.6690918019026184,"weights":{"0":-1.3411031797922928,"1":-0.09231433771097289,"2":-3.082659674660758,"3":-0.9511558692328326}},"i8555":{"bias":-2.8558542451012525,"weights":{"0":-1.5164039486559715,"1":-0.09678406547380476,"2":-2.8270762953691846,"3":-1.646231100263464}},"i8766":{"bias":-2.676496735506048,"weights":{"0":-1.2549682102347939,"1":0.04349776266606567,"2":-2.926985440911709,"3":-1.767076202629016}},"i8823":{"bias":-2.649120072497058,"weights":{"0":-1.4727003916077703,"1":0.15671314250666057,"2":-2.806704937271685,"3":-1.5550465471094197}},"i7299":{"bias":-2.5241562960304145,"weights":{"0":-1.4679962594063307,"1":0.15563948849131554,"2":-2.7396470381385014,"3":-1.890465135403509}},"i7477":{"bias":-2.271096471730031,"weights":{"0":-1.4542851499599203,"1":0.056727859886789134,"2":-2.7806207472369153,"3":-1.7270818475938443}},"i6809":{"bias":-2.2125442535212896,"weights":{"0":-1.3942403854852927,"1":0.1859890298779398,"2":-2.479464925354157,"3":-1.6405508259438881}},"i7711":{"bias":2.3487073459329135,"weights":{"0":-1.5436882303495858,"1":0.07599844274988604,"2":2.3254232686093723,"3":-1.5516914929196264}}}],"outputLookup":true,"inputLookup":true}